{"learner":{"attributes":{"best_iteration":"56","best_score":"0.389909"},"gradient_booster":{"model":{"gbtree_model_param":{"num_trees":"67","size_leaf_vector":"0"},"tree_info":[0,0,0,0,0,0,0,0,0,0,0,0,0,0,0,0,0,0,0,0,0,0,0,0,0,0,0,0,0,0,0,0,0,0,0,0,0,0,0,0,0,0,0,0,0,0,0,0,0,0,0,0,0,0,0,0,0,0,0,0,0,0,0,0,0,0,0],"trees":[{"base_weights":[-3.876617E-1,9.4317853E-1,-1.0885614E0,-1.4488189E-1,1.5721438E0,-1.4936563E0,-6.375602E-1],"categories":[],"categories_nodes":[],"categories_segments":[],"categories_sizes":[],"default_left":[true,true,true,false,false,false,false],"id":0,"left_children":[1,3,5,-1,-1,-1,-1],"loss_changes":[2.3436238E3,5.9316223E2,3.0067566E2,0E0,0E0,0E0,0E0],"parents":[2147483647,0,0,1,1,2,2],"right_children":[2,4,6,-1,-1,-1,-1],"split_conditions":[4.885E0,3.9019997E1,5.4245003E1,-4.3464568E-2,4.7164315E-1,-4.480969E-1,-1.9126807E-1],"split_indices":[1,4,4,0,0,0,0],"split_type":[0,0,0,0,0,0,0],"sum_hessian":[2.5125E3,8.6675E2,1.64575E3,3.175E2,5.4925E2,8.67E2,7.7875E2],"tree_param":{"num_deleted":"0","num_feature":"9","num_nodes":"7","size_leaf_vector":"0"}},{"base_weights":[-2.8102246E-1,1.0863531E0,-6.6958433E-1,-4.757171E-1,1.3820112E0,-2.6218605E-1,-1.1534393E0],"categories":[],"categories_nodes":[],"categories_segments":[],"categories_sizes":[],"default_left":[true,true,true,false,false,false,false],"id":1,"left_children":[1,3,5,-1,-1,-1,-1],"loss_changes":[1.2930592E3,2.4872064E2,3.7357996E2,0E0,0E0,0E0,0E0],"parents":[2147483647,0,0,1,1,2,2],"right_children":[2,4,6,-1,-1,-1,-1],"split_conditions":[3.3249998E0,1.66E1,1.0285E1,-1.4271514E-1,4.1460338E-1,-7.865582E-2,-3.4603179E-1],"split_indices":[1,4,1,0,0,0,0],"split_type":[0,0,0,0,0,0,0],"sum_hessian":[2.4337188E3,5.3854443E2,1.8951742E3,8.570952E1,4.528349E2,1.0288763E3,8.662979E2],"tree_param":{"num_deleted":"0","num_feature":"9","num_nodes":"7","size_leaf_vector":"0"}},{"base_weights":[-2.0829247E-1,1.0805104E0,-4.5873696E-1,-1.7333765E-1,1.2786715E0,-8.800269E-1,3.946569E-2],"categories":[],"categories_nodes":[],"categories_segments":[],"categories_sizes":[],"default_left":[true,true,true,false,false,false,false],"id":2,"left_children":[1,3,5,-1,-1,-1,-1],"loss_changes":[7.4575806E2,9.340427E1,4.060366E2,0E0,0E0,0E0,0E0],"parents":[2147483647,0,0,1,1,2,2],"right_children":[2,4,6,-1,-1,-1,-1],"split_conditions":[2.6950002E0,1.3315001E1,5.6795E1,-5.2001297E-2,3.8360146E-1,-2.6400807E-1,1.1839707E-2],"split_indices":[1,4,4,0,0,0,0],"split_type":[0,0,0,0,0,0,0],"sum_hessian":[2.310468E3,3.7592664E2,1.9345415E3,5.1304123E1,3.246225E2,1.0481799E3,8.863615E2],"tree_param":{"num_deleted":"0","num_feature":"9","num_nodes":"7","size_leaf_vector":"0"}},{"base_weights":[-1.5424055E-1,3.9434424E-1,-6.514442E-1,-2.0049466E-1,9.0880424E-1,-1.348033E0,-5.14903E-1],"categories":[],"categories_nodes":[],"categories_segments":[],"categories_sizes":[],"default_left":[true,true,true,false,false,false,false],"id":3,"left_children":[1,3,5,-1,-1,-1,-1],"loss_changes":[5.968519E2,3.183684E2,1.0917633E2,0E0,0E0,0E0,0E0],"parents":[2147483647,0,0,1,1,2,2],"right_children":[2,4,6,-1,-1,-1,-1],"split_conditions":[6.9049997E0,4.596E1,2.545E0,-6.01484E-2,2.7264127E-1,-4.0440992E-1,-1.544709E-1],"split_indices":[1,4,0,0,0,0,0],"split_type":[0,0,0,0,0,0,0],"sum_hessian":[2.1882078E3,1.0403489E3,1.1478588E3,4.8248303E2,5.578659E2,1.881219E2,9.597368E2],"tree_param":{"num_deleted":"0","num_feature":"9","num_nodes":"7","size_leaf_vector":"0"}},{"base_weights":[-1.16598494E-1,1.4204706E-1,-7.616456E-1,-4.5938674E-1,4.2355284E-1,-1.1469363E0,-5.7106775E-1],"categories":[],"categories_nodes":[],"categories_segments":[],"categories_sizes":[],"default_left":[true,true,true,false,false,false,false],"id":4,"left_children":[1,3,5,-1,-1,-1,-1],"loss_changes":[3.4486496E2,2.4980348E2,4.3440796E1,0E0,0E0,0E0,0E0],"parents":[2147483647,0,0,1,1,2,2],"right_children":[2,4,6,-1,-1,-1,-1],"split_conditions":[1.1875E1,3.2010002E1,4.6549997E0,-1.3781603E-1,1.2706585E-1,-3.440809E-1,-1.7132033E-1],"split_indices":[1,4,0,0,0,0,0],"split_type":[0,0,0,0,0,0,0],"sum_hessian":[2.0670579E3,1.475446E3,5.916119E2,4.7041336E2,1.00503265E3,1.9578798E2,3.958239E2],"tree_param":{"num_deleted":"0","num_feature":"9","num_nodes":"7","size_leaf_vector":"0"}},{"base_weights":[-8.969222E-2,9.439944E-1,-2.4549961E-1,-9.580783E-1,1.0689782E0,-4.3156806E-1,3.1360742E-1],"categories":[],"categories_nodes":[],"categories_segments":[],"categories_sizes":[],"default_left":[true,true,true,false,false,false,false],"id":5,"left_children":[1,3,5,-1,-1,-1,-1],"loss_changes":[3.1863E2,6.160504E1,1.7885623E2,0E0,0E0,0E0,0E0],"parents":[2147483647,0,0,1,1,2,2],"right_children":[2,4,6,-1,-1,-1,-1],"split_conditions":[2.4650002E0,5.045E0,7.7945E1,-2.8742352E-1,3.2069346E-1,-1.2947042E-1,9.408223E-2],"split_indices":[1,4,4,0,0,0,0],"split_type":[0,0,0,0,0,0,0],"sum_hessian":[1.9783801E3,2.5914062E2,1.7192395E3,1.5978031E1,2.431626E2,1.2899497E3,4.292898E2],"tree_param":{"num_deleted":"0","num_feature":"9","num_nodes":"7","size_leaf_vector":"0"}},{"base_weights":[-6.452692E-2,3.5374627E-1,-3.3725214E-1,8.253159E-2,9.556679E-1,-1.1224976E0,-2.1799849E-1],"categories":[],"categories_nodes":[],"categories_segments":[],"categories_sizes":[],"default_left":[true,true,true,false,false,false,false],"id":6,"left_children":[1,3,5,-1,-1,-1,-1],"loss_changes":[2.1627022E2,1.2215543E2,1.07466095E2,0E0,0E0,0E0,0E0],"parents":[2147483647,0,0,1,1,2,2],"right_children":[2,4,6,-1,-1,-1,-1],"split_conditions":[5.625E0,6.4880005E1,2.395E0,2.4759477E-2,2.867004E-1,-3.367493E-1,-6.539955E-2],"split_indices":[1,4,0,0,0,0,0],"split_type":[0,0,0,0,0,0,0],"sum_hessian":[1.8958824E3,7.482723E2,1.1476101E3,5.15843E2,2.3242924E2,1.5130663E2,9.963035E2],"tree_param":{"num_deleted":"0","num_feature":"9","num_nodes":"7","size_leaf_vector":"0"}},{"base_weights":[-4.7631394E-2,9.0596336E-1,-1.4092244E-1,-1.3168356E0,9.8497343E-1,-6.8057436E-1,1.53247155E-2],"categories":[],"categories_nodes":[],"categories_segments":[],"categories_sizes":[],"default_left":[true,true,true,false,false,false,false],"id":7,"left_children":[1,3,5,-1,-1,-1,-1],"loss_changes":[1.6127048E2,2.8370972E1,1.3923274E2,0E0,0E0,0E0,0E0],"parents":[2147483647,0,0,1,1,2,2],"right_children":[2,4,6,-1,-1,-1,-1],"split_conditions":[2.085E0,3.405E0,2.5835E1,-3.950507E-1,2.9549205E-1,-2.0417231E-1,4.5974148E-3],"split_indices":[1,4,4,0,0,0,0],"split_type":[0,0,0,0,0,0,0],"sum_hessian":[1.8128047E3,1.6154431E2,1.6512604E3,5.54504E0,1.5599927E2,3.7075024E2,1.2805101E3],"tree_param":{"num_deleted":"0","num_feature":"9","num_nodes":"7","size_leaf_vector":"0"}},{"base_weights":[-3.4814723E-2,9.84632E-2,-5.9714276E-1,-1.0314785E0,1.6977647E-1,-1.088792E0,-4.5774174E-1],"categories":[],"categories_nodes":[],"categories_segments":[],"categories_sizes":[],"default_left":[true,true,true,false,false,false,false],"id":8,"left_children":[1,3,5,-1,-1,-1,-1],"loss_changes":[1.3148033E2,1.1427881E2,2.303717E1,0E0,0E0,0E0,0E0],"parents":[2147483647,0,0,1,1,2,2],"right_children":[2,4,6,-1,-1,-1,-1],"split_conditions":[1.4705E1,1.605E0,3.7150002E0,-3.0944356E-1,5.0932944E-2,-3.266376E-1,-1.3732253E-1],"split_indices":[1,0,0,0,0,0,0],"split_type":[0,0,0,0,0,0,0],"sum_hessian":[1.7543363E3,1.4182059E3,3.3613037E2,8.41927E1,1.3340132E3,7.425227E1,2.618781E2],"tree_param":{"num_deleted":"0","num_feature":"9","num_nodes":"7","size_leaf_vector":"0"}},{"base_weights":[-2.7579283E-2,5.282255E-1,-1.3344353E-1,-1.1507048E-1,8.6062396E-1,-1.2832968E0,-8.2836E-2],"categories":[],"categories_nodes":[],"categories_segments":[],"categories_sizes":[],"default_left":[true,true,true,false,false,false,false],"id":9,"left_children":[1,3,5,-1,-1,-1,-1],"loss_changes":[1.0131048E2,5.890621E1,8.416311E1,0E0,0E0,0E0,0E0],"parents":[2147483647,0,0,1,1,2,2],"right_children":[2,4,6,-1,-1,-1,-1],"split_conditions":[3.0349998E0,2.3015E1,1.545E0,-3.4521144E-2,2.581872E-1,-3.8498905E-1,-2.4850802E-2],"split_indices":[1,4,0,0,0,0,0],"split_type":[0,0,0,0,0,0,0],"sum_hessian":[1.7218003E3,2.7548077E2,1.4463195E3,9.385047E1,1.816303E2,6.0972134E1,1.3853474E3],"tree_param":{"num_deleted":"0","num_feature":"9","num_nodes":"7","size_leaf_vector":"0"}},{"base_weights":[-1.9030279E-2,5.9857022E-2,-6.203793E-1,-2.094656E-1,2.9154706E-1,-1.033715E0,-4.6845552E-1],"categories":[],"categories_nodes":[],"categories_segments":[],"categories_sizes":[],"default_left":[true,true,true,false,false,false,false],"id":10,"left_children":[1,3,5,-1,-1,-1,-1],"loss_changes":[7.939903E1,9.2326935E1,1.2188698E1,0E0,0E0,0E0,0E0],"parents":[2147483647,0,0,1,1,2,2],"right_children":[2,4,6,-1,-1,-1,-1],"split_conditions":[1.8415E1,4.8665E1,4.6549997E0,-6.283968E-2,8.7464124E-2,-3.101145E-1,-1.4053667E-1],"split_indices":[1,4,0,0,0,0,0],"split_type":[0,0,0,0,0,0,0],"sum_hessian":[1.6737148E3,1.4796134E3,1.9410144E2,6.842376E2,7.9537585E2,5.21683E1,1.4193314E2],"tree_param":{"num_deleted":"0","num_feature":"9","num_nodes":"7","size_leaf_vector":"0"}},{"base_weights":[-1.54313855E-2,9.325398E-1,-6.662323E-2,-1.158505E0,1.0440876E0,-5.2113414E-1,3.7001073E-2],"categories":[],"categories_nodes":[],"categories_segments":[],"categories_sizes":[],"default_left":[true,true,true,false,false,false,false],"id":11,"left_children":[1,3,5,-1,-1,-1,-1],"loss_changes":[7.949476E1,1.957634E1,7.3199356E1,0E0,0E0,0E0,0E0],"parents":[2147483647,0,0,1,1,2,2],"right_children":[2,4,6,-1,-1,-1,-1],"split_conditions":[1.745E0,3.73E0,2.283E1,-3.475515E-1,3.132263E-1,-1.5634024E-1,1.1100322E-2],"split_indices":[1,4,4,0,0,0,0],"split_type":[0,0,0,0,0,0,0],"sum_hessian":[1.638108E3,8.3928024E1,1.5541799E3,4.25044E0,7.967758E1,2.8855164E2,1.2656283E3],"tree_param":{"num_deleted":"0","num_feature":"9","num_nodes":"7","size_leaf_vector":"0"}},{"base_weights":[-1.0978225E-2,3.3805388E-1,-1.1893457E-1,1.0562619E-1,9.3548226E-1,-1.2130668E0,-7.444925E-2],"categories":[],"categories_nodes":[],"categories_segments":[],"categories_sizes":[],"default_left":[true,true,true,false,false,false,false],"id":12,"left_children":[1,3,5,-1,-1,-1,-1],"loss_changes":[6.041354E1,5.2594143E1,5.9602905E1,0E0,0E0,0E0,0E0],"parents":[2147483647,0,0,1,1,2,2],"right_children":[2,4,6,-1,-1,-1,-1],"split_conditions":[3.995E0,5.764E1,1.605E0,3.168786E-2,2.8064469E-1,-3.6392006E-1,-2.2334775E-2],"split_indices":[1,4,0,0,0,0,0],"split_type":[0,0,0,0,0,0,0],"sum_hessian":[1.6033218E3,3.7875958E2,1.2245621E3,2.7267587E2,1.0608372E2,4.7843143E1,1.176719E3],"tree_param":{"num_deleted":"0","num_feature":"9","num_nodes":"7","size_leaf_vector":"0"}},{"base_weights":[-7.279469E-3,9.3460995E-1,-3.9401382E-2,-7.61824E-1,1.082465E0,-1.2360573E-1,3.5135373E-1],"categories":[],"categories_nodes":[],"categories_segments":[],"categories_sizes":[],"default_left":[true,true,true,false,false,false,false],"id":13,"left_children":[1,3,5,-1,-1,-1,-1],"loss_changes":[4.7352283E1,1.2946438E1,4.9798325E1,0E0,0E0,0E0,0E0],"parents":[2147483647,0,0,1,1,2,2],"right_children":[2,4,6,-1,-1,-1,-1],"split_conditions":[1.565E0,4.5550003E0,8.4990005E1,-2.2854722E-1,3.2473952E-1,-3.708172E-2,1.0540613E-1],"split_indices":[1,4,4,0,0,0,0],"split_type":[0,0,0,0,0,0,0],"sum_hessian":[1.5650912E3,5.1615128E1,1.5134761E3,4.1379404E0,4.747719E1,1.2451558E3,2.683203E2],"tree_param":{"num_deleted":"0","num_feature":"9","num_nodes":"7","size_leaf_vector":"0"}},{"base_weights":[-4.4420315E-3,9.3787104E-2,-2.9756087E-1,-1.0071054E0,1.2338664E-1,-8.7147796E-1,-1.7586878E-1],"categories":[],"categories_nodes":[],"categories_segments":[],"categories_sizes":[],"default_left":[true,true,true,false,false,false,false],"id":14,"left_children":[1,3,5,-1,-1,-1,-1],"loss_changes":[4.4468185E1,3.7694305E1,2.7074104E1,0E0,0E0,0E0,0E0],"parents":[2147483647,0,0,1,1,2,2],"right_children":[2,4,6,-1,-1,-1,-1],"split_conditions":[1.1905E1,1.325E0,3.6750002E0,-3.0213162E-1,3.7015993E-2,-2.614434E-1,-5.2760635E-2],"split_indices":[1,0,0,0,0,0,0],"split_type":[0,0,0,0,0,0,0],"sum_hessian":[1.5444198E3,1.1567672E3,3.876525E2,3.0287497E1,1.1264797E3,6.781716E1,3.1983533E2],"tree_param":{"num_deleted":"0","num_feature":"9","num_nodes":"7","size_leaf_vector":"0"}},{"base_weights":[-4.6106107E-3,-4.72097E-1,5.0194256E-2,1.1020714E0,-5.532404E-1,9.7141904E-1,1.5205848E-2],"categories":[],"categories_nodes":[],"categories_segments":[],"categories_sizes":[],"default_left":[true,true,true,false,false,false,false],"id":15,"left_children":[1,3,5,-1,-1,-1,-1],"loss_changes":[3.9037136E1,2.0422123E1,4.3957794E1,0E0,0E0,0E0,0E0],"parents":[2147483647,0,0,1,1,2,2],"right_children":[2,4,6,-1,-1,-1,-1],"split_conditions":[1.3225E1,1.285E0,1.925E0,3.3062142E-1,-1.6597213E-1,2.9142573E-1,4.5617544E-3],"split_indices":[4,1,1,0,0,0,0],"split_type":[0,0,0,0,0,0,0],"sum_hessian":[1.5236663E3,1.5988077E2,1.3637855E3,7.8373613E0,1.5204341E2,4.9901722E1,1.3138838E3],"tree_param":{"num_deleted":"0","num_feature":"9","num_nodes":"7","size_leaf_vector":"0"}},{"base_weights":[-2.9427167E-3,1.9386944E-1,-1.23424806E-1,-3.1315795E-1,2.7958217E-1,1.816335E-1,-2.1106896E-1],"categories":[],"categories_nodes":[],"categories_segments":[],"categories_sizes":[],"default_left":[true,true,true,false,false,false,false],"id":16,"left_children":[1,3,5,-1,-1,-1,-1],"loss_changes":[3.559367E1,2.4770533E1,2.4893951E1,0E0,0E0,0E0,0E0],"parents":[2147483647,0,0,1,1,2,2],"right_children":[2,4,6,-1,-1,-1,-1],"split_conditions":[4.7025E1,2.8249998E0,4.005E0,-9.394739E-2,8.387466E-2,5.4490052E-2,-6.332069E-2],"split_indices":[8,0,1,0,0,0,0],"split_type":[0,0,0,0,0,0,0],"sum_hessian":[1.5010609E3,5.699787E2,9.310822E2,8.2421326E1,4.8755734E2,2.0780087E2,7.232814E2],"tree_param":{"num_deleted":"0","num_feature":"9","num_nodes":"7","size_leaf_vector":"0"}},{"base_weights":[-2.659873E-3,4.6821468E-2,-4.4337407E-1,9.427127E-2,-4.7145125E-1,2.5137408E0,-4.7621208E-1],"categories":[],"categories_nodes":[],"categories_segments":[],"categories_sizes":[],"default_left":[true,true,true,false,false,false,false],"id":17,"left_children":[1,3,5,-1,-1,-1,-1],"loss_changes":[3.247136E1,3.2921715E1,1.4595507E1,0E0,0E0,0E0,0E0],"parents":[2147483647,0,0,1,1,2,2],"right_children":[2,4,6,-1,-1,-1,-1],"split_conditions":[2.134E1,2.0015E1,1.9869999E1,2.8281383E-2,-1.4143538E-1,7.5412226E-1,-1.4286363E-1],"split_indices":[0,1,6,0,0,0,0],"split_type":[0,0,0,0,0,0,0],"sum_hessian":[1.4890249E3,1.3387197E3,1.5030524E2,1.226435E3,1.12284706E2,1.6507705E0,1.4865446E2],"tree_param":{"num_deleted":"0","num_feature":"9","num_nodes":"7","size_leaf_vector":"0"}},{"base_weights":[-2.6632776E-3,-1.1583927E-1,1.7526694E-1,7.5978506E-1,-1.4334111E-1,7.857567E-1,7.144859E-2],"categories":[],"categories_nodes":[],"categories_segments":[],"categories_sizes":[],"default_left":[true,true,true,false,false,false,false],"id":18,"left_children":[1,3,5,-1,-1,-1,-1],"loss_changes":[2.9802528E1,2.1783463E1,3.6467377E1,0E0,0E0,0E0,0E0],"parents":[2147483647,0,0,1,1,2,2],"right_children":[2,4,6,-1,-1,-1,-1],"split_conditions":[6.5075E1,1.495E0,4.495E0,2.2793552E-1,-4.3002333E-2,2.3572703E-1,2.1434577E-2],"split_indices":[4,1,1,0,0,0,0],"split_type":[0,0,0,0,0,0,0],"sum_hessian":[1.4799572E3,9.045808E2,5.7537634E2,2.7546133E1,8.7703467E2,8.362585E1,4.917505E2],"tree_param":{"num_deleted":"0","num_feature":"9","num_nodes":"7","size_leaf_vector":"0"}},{"base_weights":[-7.7949767E-4,-3.882468E-1,4.992094E-2,-1.7923407E-1,-9.363747E-1,-2.7997595E-1,1.1085466E-1],"categories":[],"categories_nodes":[],"categories_segments":[],"categories_sizes":[],"default_left":[true,true,true,false,false,false,false],"id":19,"left_children":[1,3,5,-1,-1,-1,-1],"loss_changes":[2.8553541E1,1.9268112E1,2.5837105E1,0E0,0E0,0E0,0E0],"parents":[2147483647,0,0,1,1,2,2],"right_children":[2,4,6,-1,-1,-1,-1],"split_conditions":[2.545E0,8.565001E0,1.9744999E1,-5.3770225E-2,-2.8091243E-1,-8.399279E-2,3.32564E-2],"split_indices":[0,1,4,0,0,0,0],"split_type":[0,0,0,0,0,0,0],"sum_hessian":[1.4534939E3,1.6818393E2,1.2853099E3,1.2175585E2,4.6428074E1,2.0039044E2,1.0849194E3],"tree_param":{"num_deleted":"0","num_feature":"9","num_nodes":"7","size_leaf_vector":"0"}},{"base_weights":[-1.750414E-3,-1.2005852E0,9.876544E-3,3.9167166E-2,-1.3032299E0,4.5454457E-2,-3.9509672E-1],"categories":[],"categories_nodes":[],"categories_segments":[],"categories_sizes":[],"default_left":[true,true,true,false,false,false,false],"id":20,"left_children":[1,3,5,-1,-1,-1,-1],"loss_changes":[2.0094835E1,1.7621613E0,2.0571884E1,0E0,0E0,0E0,0E0],"parents":[2147483647,0,0,1,1,2,2],"right_children":[2,4,6,-1,-1,-1,-1],"split_conditions":[1.165E0,1.735E0,2.346E1,1.17501505E-2,-3.90969E-1,1.3636338E-2,-1.1852902E-1],"split_indices":[0,1,0,0,0,0,0],"split_type":[0,0,0,0,0,0,0],"sum_hessian":[1.4416472E3,1.3847584E1,1.4277996E3,1.0588381E0,1.2788745E1,1.3124938E3,1.15305855E2],"tree_param":{"num_deleted":"0","num_feature":"9","num_nodes":"7","size_leaf_vector":"0"}},{"base_weights":[-1.5952087E-3,2.7547544E-2,-4.459133E-1,-1.9696565E-2,3.5831645E-1,1.4838977E0,-5.130478E-1],"categories":[],"categories_nodes":[],"categories_segments":[],"categories_sizes":[],"default_left":[true,true,true,false,false,false,false],"id":21,"left_children":[1,3,5,-1,-1,-1,-1],"loss_changes":[1.865562E1,2.1128439E1,1.1489267E1,0E0,0E0,0E0,0E0],"parents":[2147483647,0,0,1,1,2,2],"right_children":[2,4,6,-1,-1,-1,-1],"split_conditions":[2.203E1,8.8915E1,4.11E0,-5.90897E-3,1.0749494E-1,4.4516933E-1,-1.5391435E-1],"split_indices":[1,4,3,0,0,0,0],"split_type":[0,0,0,0,0,0,0],"sum_hessian":[1.4407384E3,1.3520573E3,8.868121E1,1.183077E3,1.6898027E2,2.9813385E0,8.5699875E1],"tree_param":{"num_deleted":"0","num_feature":"9","num_nodes":"7","size_leaf_vector":"0"}},{"base_weights":[-1.7376839E-3,1.4124402E-1,-9.199516E-2,2.0997973E-1,-2.4005577E-1,-2.9118347E-1,1.0318004E-3],"categories":[],"categories_nodes":[],"categories_segments":[],"categories_sizes":[],"default_left":[true,true,true,false,false,false,false],"id":22,"left_children":[1,3,5,-1,-1,-1,-1],"loss_changes":[1.8459682E1,1.4507453E1,1.6248459E1,0E0,0E0,0E0,0E0],"parents":[2147483647,0,0,1,1,2,2],"right_children":[2,4,6,-1,-1,-1,-1],"split_conditions":[4.7025E1,1.7085E1,3.8145E1,6.299392E-2,-7.201673E-2,-8.735505E-2,3.0954013E-4],"split_indices":[8,0,4,0,0,0,0],"split_type":[0,0,0,0,0,0,0],"sum_hessian":[1.4304099E3,5.535313E2,8.768786E2,4.6898825E2,8.454304E1,2.79155E2,5.9772363E2],"tree_param":{"num_deleted":"0","num_feature":"9","num_nodes":"7","size_leaf_vector":"0"}},{"base_weights":[-1.6904034E-3,1.878552E0,-8.18365E-3,6.842388E-1,2.9920278E0,-4.7912174E-1,1.7014306E-2],"categories":[],"categories_nodes":[],"categories_segments":[],"categories_sizes":[],"default_left":[true,true,true,false,false,false,false],"id":23,"left_children":[1,3,5,-1,-1,-1,-1],"loss_changes":[1.7397943E1,6.5218697E0,1.6852106E1,0E0,0E0,0E0,0E0],"parents":[2147483647,0,0,1,1,2,2],"right_children":[2,4,6,-1,-1,-1,-1],"split_conditions":[1.476E1,6.275E0,1.765E0,2.0527165E-1,8.9760834E-1,-1.4373653E-1,5.104292E-3],"split_indices":[6,2,0,0,0,0,0],"split_type":[0,0,0,0,0,0,0],"sum_hessian":[1.425024E3,4.904255E0,1.4201199E3,2.3662343E0,2.5380208E0,7.212561E1,1.3479943E3],"tree_param":{"num_deleted":"0","num_feature":"9","num_nodes":"7","size_leaf_vector":"0"}},{"base_weights":[-1.4092127E-3,3.148404E-1,-3.694993E-2,-3.4165485E-3,9.0527207E-1,-8.9199734E-1,-1.648133E-2],"categories":[],"categories_nodes":[],"categories_segments":[],"categories_sizes":[],"default_left":[true,true,true,false,false,false,false],"id":24,"left_children":[1,3,5,-1,-1,-1,-1],"loss_changes":[1.6004807E1,2.7032368E1,2.2403643E1,0E0,0E0,0E0,0E0],"parents":[2147483647,0,0,1,1,2,2],"right_children":[2,4,6,-1,-1,-1,-1],"split_conditions":[2.755E0,3.378E1,1.545E0,-1.0249646E-3,2.7158162E-1,-2.6759923E-1,-4.9443995E-3],"split_indices":[1,4,0,0,0,0,0],"split_type":[0,0,0,0,0,0,0],"sum_hessian":[1.4239485E3,1.4385884E2,1.2800897E3,9.347406E1,5.038478E1,2.9927084E1,1.2501626E3],"tree_param":{"num_deleted":"0","num_feature":"9","num_nodes":"7","size_leaf_vector":"0"}},{"base_weights":[-3.7768832E-4,7.555394E-2,-1.3449566E-1,9.366433E-2,-7.7247113E-1,-5.2016187E-1,-1.00522665E-2],"categories":[],"categories_nodes":[],"categories_segments":[],"categories_sizes":[],"default_left":[true,true,true,false,false,false,false],"id":25,"left_children":[1,3,5,-1,-1,-1,-1],"loss_changes":[1.4342282E1,1.3810533E1,2.4433907E1,0E0,0E0,0E0,0E0],"parents":[2147483647,0,0,1,1,2,2],"right_children":[2,4,6,-1,-1,-1,-1],"split_conditions":[9.285E0,3.4075E1,4.6949997E0,2.80993E-2,-2.3174135E-1,-1.5604857E-1,-3.01568E-3],"split_indices":[1,0,0,0,0,0,0],"split_type":[0,0,0,0,0,0,0],"sum_hessian":[1.4083436E3,8.992361E2,5.0910748E2,8.804336E2,1.8802515E1,1.24198906E2,3.8490857E2],"tree_param":{"num_deleted":"0","num_feature":"9","num_nodes":"7","size_leaf_vector":"0"}},{"base_weights":[-9.228055E-4,-2.9304782E-1,2.9683089E-2,-3.722531E-1,3.7843603E-1,8.520052E-1,8.826672E-3],"categories":[],"categories_nodes":[],"categories_segments":[],"categories_sizes":[],"default_left":[true,true,true,false,false,false,false],"id":26,"left_children":[1,3,5,-1,-1,-1,-1],"loss_changes":[1.2492154E1,7.0472164E0,2.169069E1,0E0,0E0,0E0,0E0],"parents":[2147483647,0,0,1,1,2,2],"right_children":[2,4,6,-1,-1,-1,-1],"split_conditions":[1.3225E1,6.4835E1,1.925E0,-1.1167593E-1,1.13530815E-1,2.5560156E-1,2.6480018E-3],"split_indices":[4,6,1,0,0,0,0],"split_type":[0,0,0,0,0,0,0],"sum_hessian":[1.397216E3,1.3250371E2,1.2647122E3,1.18523224E2,1.3980474E1,3.1283249E1,1.233429E3],"tree_param":{"num_deleted":"0","num_feature":"9","num_nodes":"7","size_leaf_vector":"0"}},{"base_weights":[-4.1519868E-4,7.012226E-1,-1.13369115E-2,-7.779149E-1,1.0094007E0,-6.8033725E-2,1.4290114E-1],"categories":[],"categories_nodes":[],"categories_segments":[],"categories_sizes":[],"default_left":[true,true,true,false,false,false,false],"id":27,"left_children":[1,3,5,-1,-1,-1,-1],"loss_changes":[1.0622454E1,9.685032E0,1.1936119E1,0E0,0E0,0E0,0E0],"parents":[2147483647,0,0,1,1,2,2],"right_children":[2,4,6,-1,-1,-1,-1],"split_conditions":[1.455E0,4.5550003E0,7.7104996E1,-2.3337448E-1,3.0282024E-1,-2.0410119E-2,4.2870343E-2],"split_indices":[1,4,4,0,0,0,0],"split_type":[0,0,0,0,0,0,0],"sum_hessian":[1.3861848E3,2.1246664E1,1.3649381E3,3.6634586E0,1.7583206E1,9.980588E2,3.6687933E2],"tree_param":{"num_deleted":"0","num_feature":"9","num_nodes":"7","size_leaf_vector":"0"}},{"base_weights":[7.042008E-6,9.993853E-2,-7.515815E-2,2.6507357E-1,-1.7912133E-2,6.1496776E-2,-1.8339935E-1],"categories":[],"categories_nodes":[],"categories_segments":[],"categories_sizes":[],"default_left":[true,true,true,false,false,false,false],"id":28,"left_children":[1,3,5,-1,-1,-1,-1],"loss_changes":[1.0343134E1,1.1503849E1,1.1624528E1,0E0,0E0,0E0,0E0],"parents":[2147483647,0,0,1,1,2,2],"right_children":[2,4,6,-1,-1,-1,-1],"split_conditions":[4.8315002E1,4.685E1,6.375E0,7.952207E-2,-5.37364E-3,1.8449033E-2,-5.5019807E-2],"split_indices":[8,6,1,0,0,0,0],"split_type":[0,0,0,0,0,0,0],"sum_hessian":[1.3769972E3,5.911149E2,7.8588226E2,2.4617242E2,3.4494247E2,3.4735068E2,4.3853156E2],"tree_param":{"num_deleted":"0","num_feature":"9","num_nodes":"7","size_leaf_vector":"0"}},{"base_weights":[-3.241123E-4,-1.2738218E0,5.761242E-3,-1.1030394E0,-2.0164452E0,2.4527013E-2,-3.5825774E-1],"categories":[],"categories_nodes":[],"categories_segments":[],"categories_sizes":[],"default_left":[true,true,true,false,false,false,false],"id":29,"left_children":[1,3,5,-1,-1,-1,-1],"loss_changes":[1.0612384E1,8.2595825E-1,9.309986E0,0E0,0E0,0E0,0E0],"parents":[2147483647,0,0,1,1,2,2],"right_children":[2,4,6,-1,-1,-1,-1],"split_conditions":[1.105E0,6.187E1,2.3224998E1,-3.3091182E-1,-6.0493356E-1,7.3581045E-3,-1.0747733E-1],"split_indices":[0,8,1,0,0,0,0],"split_type":[0,0,0,0,0,0,0],"sum_hessian":[1.3693956E3,6.5124793E0,1.3628832E3,5.29482E0,1.2176594E0,1.2960687E3,6.6814445E1],"tree_param":{"num_deleted":"0","num_feature":"9","num_nodes":"7","size_leaf_vector":"0"}},{"base_weights":[-5.544329E-4,2.8413672E0,-2.9094943E-3,6.284128E-3,-7.100731E-1],"categories":[],"categories_nodes":[],"categories_segments":[],"categories_sizes":[],"default_left":[true,false,true,false,false],"id":30,"left_children":[1,-1,3,-1,-1],"loss_changes":[9.137467E0,0E0,8.868668E0,0E0,0E0],"parents":[2147483647,0,0,2,2],"right_children":[2,-1,4,-1,-1],"split_conditions":[1.005E0,8.524102E-1,3.71E1,1.8852385E-3,-2.1302195E-1],"split_indices":[2,0,0,0,0],"split_type":[0,0,0,0,0],"sum_hessian":[1.3652479E3,1.1304253E0,1.3641174E3,1.3466106E3,1.750688E1],"tree_param":{"num_deleted":"0","num_feature":"9","num_nodes":"5","size_leaf_vector":"0"}},{"base_weights":[-5.3961884E-4,-1.9981286E-1,3.188604E-2,7.001141E-1,-3.0072576E-1,7.3525E-2,-1.6592033E-1],"categories":[],"categories_nodes":[],"categories_segments":[],"categories_sizes":[],"default_left":[true,true,true,false,false,false,false],"id":31,"left_children":[1,3,5,-1,-1,-1,-1],"loss_changes":[8.820236E0,1.7348469E1,9.669578E0,0E0,0E0,0E0,0E0],"parents":[2147483647,0,0,1,1,2,2],"right_children":[2,4,6,-1,-1,-1,-1],"split_conditions":[2.9650002E0,2.3850002E0,1.7485E1,2.1003424E-1,-9.021773E-2,2.20575E-2,-4.9776103E-2],"split_indices":[0,1,0,0,0,0,0],"split_type":[0,0,0,0,0,0,0],"sum_hessian":[1.3650306E3,1.910325E2,1.1739982E3,1.9261465E1,1.7177103E2,9.698428E2,2.0415538E2],"tree_param":{"num_deleted":"0","num_feature":"9","num_nodes":"7","size_leaf_vector":"0"}},{"base_weights":[-4.922237E-4,4.034612E-1,-1.55981155E-2,1.3698323E0,2.5445342E-1,-4.83432E-2,1.6966969E-1],"categories":[],"categories_nodes":[],"categories_segments":[],"categories_sizes":[],"default_left":[true,true,true,false,false,false,false],"id":32,"left_children":[1,3,5,-1,-1,-1,-1],"loss_changes":[8.306093E0,7.0654993E0,7.960145E0,0E0,0E0,0E0,0E0],"parents":[2147483647,0,0,1,1,2,2],"right_children":[2,4,6,-1,-1,-1,-1],"split_conditions":[2.5895E1,3.7835E1,8.7255E1,4.109497E-1,7.6336026E-2,-1.450296E-2,5.090091E-2],"split_indices":[6,8,4,0,0,0,0],"split_type":[0,0,0,0,0,0,0],"sum_hessian":[1.3611913E3,4.9067055E1,1.3121241E3,6.5550585E0,4.2511997E1,1.1150458E3,1.9707835E2],"tree_param":{"num_deleted":"0","num_feature":"9","num_nodes":"7","size_leaf_vector":"0"}},{"base_weights":[-4.0553932E-4,-4.1784835E-1,1.3262252E-2,2.1078181E0,-4.9104324E-1,9.129524E-1,4.599887E-3],"categories":[],"categories_nodes":[],"categories_segments":[],"categories_sizes":[],"default_left":[true,true,true,false,false,false,false],"id":33,"left_children":[1,3,5,-1,-1,-1,-1],"loss_changes":[7.746647E0,7.957653E0,1.0246042E1,0E0,0E0,0E0,0E0],"parents":[2147483647,0,0,1,1,2,2],"right_children":[2,4,6,-1,-1,-1,-1],"split_conditions":[5.37E0,3.9099998E0,1.455E0,6.3234544E-1,-1.4731298E-1,2.7388573E-1,1.3799662E-3],"split_indices":[4,5,1,0,0,0,0],"split_type":[0,0,0,0,0,0,0],"sum_hessian":[1.3577456E3,4.3045532E1,1.3147001E3,1.2123439E0,4.1833187E1,1.25374365E1,1.3021626E3],"tree_param":{"num_deleted":"0","num_feature":"9","num_nodes":"7","size_leaf_vector":"0"}},{"base_weights":[-3.6846928E-4,-1.3446914E0,3.5055315E-3,-1.1034838E0,-1.9001267E0,7.9808235E-3,-1.1549035E0],"categories":[],"categories_nodes":[],"categories_segments":[],"categories_sizes":[],"default_left":[true,true,true,false,false,false,false],"id":34,"left_children":[1,3,5,-1,-1,-1,-1],"loss_changes":[7.0438404E0,5.206876E-1,6.991653E0,0E0,0E0,0E0,0E0],"parents":[2147483647,0,0,1,1,2,2],"right_children":[2,4,6,-1,-1,-1,-1],"split_conditions":[1.075E0,5.7285E1,4.407E1,-3.3104515E-1,-5.70038E-1,2.394247E-3,-3.4647107E-1],"split_indices":[0,8,1,0,0,0,0],"split_type":[0,0,0,0,0,0,0],"sum_hessian":[1.3525278E3,3.8864455E0,1.3486414E3,2.709707E0,1.1767385E0,1.3434513E3,5.1901674E0],"tree_param":{"num_deleted":"0","num_feature":"9","num_nodes":"7","size_leaf_vector":"0"}},{"base_weights":[-5.088958E-4,2.443822E-2,-1.989965E-1,-6.9046445E-2,9.421392E-2,-1.3477382E-1,-1.0240632E0],"categories":[],"categories_nodes":[],"categories_segments":[],"categories_sizes":[],"default_left":[true,true,true,false,false,false,false],"id":35,"left_children":[1,3,5,-1,-1,-1,-1],"loss_changes":[6.6916428E0,7.8308034E0,7.9951415E0,0E0,0E0,0E0,0E0],"parents":[2147483647,0,0,1,1,2,2],"right_children":[2,4,6,-1,-1,-1,-1],"split_conditions":[6.6315E1,4.866E1,2.2279999E1,-2.0713935E-2,2.8264176E-2,-4.0432148E-2,-3.0721897E-1],"split_indices":[8,4,0,0,0,0,0],"split_type":[0,0,0,0,0,0,0],"sum_hessian":[1.3513848E3,1.2004989E3,1.5088591E2,5.1308014E2,6.8741876E2,1.3998924E2,1.0896674E1],"tree_param":{"num_deleted":"0","num_feature":"9","num_nodes":"7","size_leaf_vector":"0"}},{"base_weights":[-5.2791135E-4,1.1913325E0,-4.5676576E-3,-1.2132025E-1,1.6341342E0,3.9931662E-2,-1.1705003E-1],"categories":[],"categories_nodes":[],"categories_segments":[],"categories_sizes":[],"default_left":[true,true,true,false,false,false,false],"id":36,"left_children":[1,3,5,-1,-1,-1,-1],"loss_changes":[6.482742E0,2.643611E0,6.7165704E0,0E0,0E0,0E0,0E0],"parents":[2147483647,0,0,1,1,2,2],"right_children":[2,4,6,-1,-1,-1,-1],"split_conditions":[1.4065001E1,3.275E0,1.0665E1,-3.6396075E-2,4.9024028E-1,1.1979499E-2,-3.511501E-2],"split_indices":[6,2,1,0,0,0,0],"split_type":[0,0,0,0,0,0,0],"sum_hessian":[1.346416E3,4.548188E0,1.3418679E3,1.1472502E0,3.400938E0,9.6149097E2,3.803769E2],"tree_param":{"num_deleted":"0","num_feature":"9","num_nodes":"7","size_leaf_vector":"0"}},{"base_weights":[-4.4885205E-4,-4.970663E-3,1.0621656E0,8.184645E-1,-1.0347114E-2,2.2359009E0,-2.486519E-1],"categories":[],"categories_nodes":[],"categories_segments":[],"categories_sizes":[],"default_left":[true,true,true,false,false,false,false],"id":37,"left_children":[1,3,5,-1,-1,-1,-1],"loss_changes":[6.4364266E0,5.9052405E0,8.732962E0,0E0,0E0,0E0,0E0],"parents":[2147483647,0,0,1,1,2,2],"right_children":[2,4,6,-1,-1,-1,-1],"split_conditions":[9.9645004E1,1.285E0,9.940001E0,2.4553937E-1,-3.1041342E-3,6.707703E-1,-7.459558E-2],"split_indices":[5,1,2,0,0,0,0],"split_type":[0,0,0,0,0,0,0],"sum_hessian":[1.339543E3,1.333867E3,5.676089E0,8.652714E0,1.3252142E3,2.9946303E0,2.6814585E0],"tree_param":{"num_deleted":"0","num_feature":"9","num_nodes":"7","size_leaf_vector":"0"}},{"base_weights":[-2.417753E-4,-2.1326534E-1,2.0179775E-2,-1.523418E-1,-9.4939494E-1,9.709613E-1,1.1697573E-2],"categories":[],"categories_nodes":[],"categories_segments":[],"categories_sizes":[],"default_left":[true,true,true,false,false,false,false],"id":38,"left_children":[1,3,5,-1,-1,-1,-1],"loss_changes":[5.819269E0,5.2480197E0,9.844288E0,0E0,0E0,0E0,0E0],"parents":[2147483647,0,0,1,1,2,2],"right_children":[2,4,6,-1,-1,-1,-1],"split_conditions":[1.3225E1,2.1135E1,1.715E0,-4.570254E-2,-2.848185E-1,2.912884E-1,3.509272E-3],"split_indices":[4,0,1,0,0,0,0],"split_type":[0,0,0,0,0,0,0],"sum_hessian":[1.3376796E3,1.170189E2,1.2206606E3,1.0807444E2,8.944456E0,1.0793582E1,1.2098671E3],"tree_param":{"num_deleted":"0","num_feature":"9","num_nodes":"7","size_leaf_vector":"0"}},{"base_weights":[-1.00696525E-4,1.2043139E0,-3.5996705E-3,3.4222004E-1,2.307142E0,-6.0830084E-3,1.6881061E0],"categories":[],"categories_nodes":[],"categories_segments":[],"categories_sizes":[],"default_left":[true,true,true,false,false,false,false],"id":39,"left_children":[1,3,5,-1,-1,-1,-1],"loss_changes":[5.612459E0,3.6677842E0,5.5787554E0,0E0,0E0,0E0,0E0],"parents":[2147483647,0,0,1,1,2,2],"right_children":[2,4,6,-1,-1,-1,-1],"split_conditions":[1.025E0,4.5495E1,7.9365005E1,1.0266601E-1,6.921426E-1,-1.8249026E-3,5.064318E-1],"split_indices":[2,5,7,0,0,0,0],"split_type":[0,0,0,0,0,0,0],"sum_hessian":[1.3317922E3,3.8578146E0,1.3279344E3,2.165229E0,1.6925852E0,1.325988E3,1.946483E0],"tree_param":{"num_deleted":"0","num_feature":"9","num_nodes":"7","size_leaf_vector":"0"}},{"base_weights":[-1.4324392E-4,-5.4970795E-1,7.4489517E-3,1.25005E0,-7.9963243E-1,6.8456656E-1,1.9364237E-3],"categories":[],"categories_nodes":[],"categories_segments":[],"categories_sizes":[],"default_left":[true,true,true,false,false,false,false],"id":40,"left_children":[1,3,5,-1,-1,-1,-1],"loss_changes":[5.5560946E0,8.161993E0,4.9027486E0,0E0,0E0,0E0,0E0],"parents":[2147483647,0,0,1,1,2,2],"right_children":[2,4,6,-1,-1,-1,-1],"split_conditions":[1.305E0,1.815E0,1.8985E1,3.75015E-1,-2.3988974E-1,2.0536998E-1,5.809271E-4],"split_indices":[0,1,8,0,0,0,0],"split_type":[0,0,0,0,0,0,0],"sum_hessian":[1.3316295E3,1.8145681E1,1.3134838E3,2.2125623E0,1.5933118E1,1.0606938E1,1.3028768E3],"tree_param":{"num_deleted":"0","num_feature":"9","num_nodes":"7","size_leaf_vector":"0"}},{"base_weights":[-2.2102395E-4,2.7250705E-2,-1.4644174E-1,-9.464996E-2,8.500391E-2,1.9839896E-1,-2.776173E-1],"categories":[],"categories_nodes":[],"categories_segments":[],"categories_sizes":[],"default_left":[true,true,true,false,false,false,false],"id":41,"left_children":[1,3,5,-1,-1,-1,-1],"loss_changes":[5.3444586E0,7.885314E0,9.518869E0,0E0,0E0,0E0,0E0],"parents":[2147483647,0,0,1,1,2,2],"right_children":[2,4,6,-1,-1,-1,-1],"split_conditions":[6.2745003E1,3.9019997E1,3.5149999E0,-2.839499E-2,2.5501175E-2,5.951969E-2,-8.32852E-2],"split_indices":[6,4,2,0,0,0,0],"split_type":[0,0,0,0,0,0,0],"sum_hessian":[1.3304814E3,1.1200483E3,2.1043301E2,3.600612E2,7.599872E2,5.7988922E1,1.5244409E2],"tree_param":{"num_deleted":"0","num_feature":"9","num_nodes":"7","size_leaf_vector":"0"}},{"base_weights":[-3.2222533E-4,1.4198205E-1,-3.0843867E-2,-1.0321204E-2,7.2685534E-1,-8.887323E-1,-1.7724918E-2],"categories":[],"categories_nodes":[],"categories_segments":[],"categories_sizes":[],"default_left":[true,true,true,false,false,false,false],"id":42,"left_children":[1,3,5,-1,-1,-1,-1],"loss_changes":[5.758979E0,2.0858814E1,1.228736E1,0E0,0E0,0E0,0E0],"parents":[2147483647,0,0,1,1,2,2],"right_children":[2,4,6,-1,-1,-1,-1],"split_conditions":[3.705E0,5.4705E1,1.555E0,-3.0963612E-3,2.180566E-1,-2.666197E-1,-5.3174756E-3],"split_indices":[1,4,0,0,0,0,0],"split_type":[0,0,0,0,0,0,0],"sum_hessian":[1.3259271E3,2.3416321E2,1.0917639E3,1.8578427E2,4.837894E1,1.6443941E1,1.07532E3],"tree_param":{"num_deleted":"0","num_feature":"9","num_nodes":"7","size_leaf_vector":"0"}},{"base_weights":[9.8787554E-5,3.4401796E-3,-1.116469E0,4.1030265E-2,-9.359145E-2,-1.0815687E0,-1.1797619E0],"categories":[],"categories_nodes":[],"categories_segments":[],"categories_sizes":[],"default_left":[true,true,true,false,false,false,false],"id":43,"left_children":[1,3,5,-1,-1,-1,-1],"loss_changes":[4.9034767E0,4.779478E0,8.662224E-3,0E0,0E0,0E0,0E0],"parents":[2147483647,0,0,1,1,2,2],"right_children":[2,4,6,-1,-1,-1,-1],"split_conditions":[4.407E1,5.8184998E1,8.116E1,1.230908E-2,-2.8077437E-2,-3.2447064E-1,-3.5392857E-1],"split_indices":[1,8,4,0,0,0,0],"split_type":[0,0,0,0,0,0,0],"sum_hessian":[1.3142911E3,1.3103698E3,3.9213552E0,9.444785E2,3.6589127E2,2.5276074E0,1.3937478E0],"tree_param":{"num_deleted":"0","num_feature":"9","num_nodes":"7","size_leaf_vector":"0"}},{"base_weights":[-8.948527E-5,2.4583125E-1,-1.4460345E-2,2.091268E-1,2.4872775E0,-1.5338842E0,-1.1116703E-2],"categories":[],"categories_nodes":[],"categories_segments":[],"categories_sizes":[],"default_left":[true,true,true,false,false,false,false],"id":44,"left_children":[1,3,5,-1,-1,-1,-1],"loss_changes":[4.641998E0,5.966183E0,6.304645E0,0E0,0E0,0E0,0E0],"parents":[2147483647,0,0,1,1,2,2],"right_children":[2,4,6,-1,-1,-1,-1],"split_conditions":[2.616E1,2.6015E1,2.6384998E1,6.2738046E-2,7.461833E-1,-4.6016526E-1,-3.335011E-3],"split_indices":[7,7,7,0,0,0,0],"split_type":[0,0,0,0,0,0,0],"sum_hessian":[1.313491E3,7.251865E1,1.2409723E3,7.135026E1,1.1683847E0,2.7248847E0,1.2382474E3],"tree_param":{"num_deleted":"0","num_feature":"9","num_nodes":"7","size_leaf_vector":"0"}},{"base_weights":[-2.2825465E-4,6.259552E-3,-5.362135E-1,-6.251733E-2,6.355005E-2,1.1917729E0,-7.4389964E-1],"categories":[],"categories_nodes":[],"categories_segments":[],"categories_sizes":[],"default_left":[true,true,true,false,false,false,false],"id":45,"left_children":[1,3,5,-1,-1,-1,-1],"loss_changes":[4.568149E0,5.1143355E0,5.6384153E0,0E0,0E0,0E0,0E0],"parents":[2147483647,0,0,1,1,2,2],"right_children":[2,4,6,-1,-1,-1,-1],"split_conditions":[3.71E1,6.925E0,9.1E0,-1.87552E-2,1.9065015E-2,3.575319E-1,-2.2316991E-1],"split_indices":[0,0,3,0,0,0,0],"split_type":[0,0,0,0,0,0,0],"sum_hessian":[1.3136798E3,1.2979686E3,1.5711197E1,5.8985333E2,7.0811523E2,1.6857177E0,1.4025479E1],"tree_param":{"num_deleted":"0","num_feature":"9","num_nodes":"7","size_leaf_vector":"0"}},{"base_weights":[-2.856971E-4,-6.01269E-2,5.6711704E-2,-6.5403E-2,2.696302E0,9.700792E-1,4.1533038E-2],"categories":[],"categories_nodes":[],"categories_segments":[],"categories_sizes":[],"default_left":[true,true,true,false,false,false,false],"id":46,"left_children":[1,3,5,-1,-1,-1,-1],"loss_changes":[4.480041E0,9.318697E0,9.326523E0,0E0,0E0,0E0,0E0],"parents":[2147483647,0,0,1,1,2,2],"right_children":[2,4,6,-1,-1,-1,-1],"split_conditions":[4.979E1,9.0275E1,5.0645E1,-1.9620901E-2,8.0889064E-1,2.9102376E-1,1.2459912E-2],"split_indices":[5,8,5,0,0,0,0],"split_type":[0,0,0,0,0,0,0],"sum_hessian":[1.3134896E3,6.4075995E2,6.7272974E2,6.395358E2,1.2241402E0,1.099691E1,6.617328E2],"tree_param":{"num_deleted":"0","num_feature":"9","num_nodes":"7","size_leaf_vector":"0"}},{"base_weights":[-3.3386025E-4,6.991191E-2,-4.43266E-2,-1.5612829E-2,3.8173574E-1,-5.213222E-1,-1.5326658E-2],"categories":[],"categories_nodes":[],"categories_segments":[],"categories_sizes":[],"default_left":[true,true,true,false,false,false,false],"id":47,"left_children":[1,3,5,-1,-1,-1,-1],"loss_changes":[4.0583577E0,1.3487103E1,1.1170389E1,0E0,0E0,0E0,0E0],"parents":[2147483647,0,0,1,1,2,2],"right_children":[2,4,6,-1,-1,-1,-1],"split_conditions":[5.875E0,6.8115005E1,2.395E0,-4.683849E-3,1.1452073E-1,-1.5639666E-1,-4.5979978E-3],"split_indices":[1,4,0,0,0,0,0],"split_type":[0,0,0,0,0,0,0],"sum_hessian":[1.3132552E3,5.0572876E2,8.0752655E2,3.968764E2,1.0885234E2,4.6281483E1,7.6124506E2],"tree_param":{"num_deleted":"0","num_feature":"9","num_nodes":"7","size_leaf_vector":"0"}},{"base_weights":[-2.2278074E-4,2.2995869E-2,-1.3363811E-1,1.0767811E-1,-3.360837E-2,-1.0197085E-1,-1.0961509E0],"categories":[],"categories_nodes":[],"categories_segments":[],"categories_sizes":[],"default_left":[true,true,true,false,false,false,false],"id":48,"left_children":[1,3,5,-1,-1,-1,-1],"loss_changes":[4.0299525E0,5.311512E0,5.87794E0,0E0,0E0,0E0,0E0],"parents":[2147483647,0,0,1,1,2,2],"right_children":[2,4,6,-1,-1,-1,-1],"split_conditions":[1.7485E1,4.7025E1,2.7815E1,3.2303434E-2,-1.0082511E-2,-3.0591257E-2,-3.2884526E-1],"split_indices":[0,8,2,0,0,0,0],"split_type":[0,0,0,0,0,0,0],"sum_hessian":[1.3009397E3,1.1080948E3,1.928449E2,4.4394104E2,6.641538E2,1.8670229E2,6.14262E0],"tree_param":{"num_deleted":"0","num_feature":"9","num_nodes":"7","size_leaf_vector":"0"}},{"base_weights":[-2.688745E-4,-5.8420725E-2,4.8667986E-2,2.214809E0,-6.549136E-2,9.2295036E-2,-1.9951893E-1],"categories":[],"categories_nodes":[],"categories_segments":[],"categories_sizes":[],"default_left":[true,true,true,false,false,false,false],"id":49,"left_children":[1,3,5,-1,-1,-1,-1],"loss_changes":[3.7006445E0,9.551506E0,7.6459646E0,0E0,0E0,0E0,0E0],"parents":[2147483647,0,0,1,1,2,2],"right_children":[2,4,6,-1,-1,-1,-1],"split_conditions":[5.785E0,1.345E0,6.2885002E1,6.644427E-1,-1.964741E-2,2.7688513E-2,-5.985568E-2],"split_indices":[2,5,6,0,0,0,0],"split_type":[0,0,0,0,0,0,0],"sum_hessian":[1.3004023E3,5.942513E2,7.06151E2,1.842623E0,5.924086E2,6.0057935E2,1.05571655E2],"tree_param":{"num_deleted":"0","num_feature":"9","num_nodes":"7","size_leaf_vector":"0"}},{"base_weights":[-3.8248659E-4,-7.1280045E-3,4.2076427E-1,-9.407856E-3,1.5027027E0,7.662205E-1,-7.8584933E-1],"categories":[],"categories_nodes":[],"categories_segments":[],"categories_sizes":[],"default_left":[true,true,true,false,false,false,false],"id":50,"left_children":[1,3,5,-1,-1,-1,-1],"loss_changes":[3.6941924E0,4.4055943E0,8.545016E0,0E0,0E0,0E0,0E0],"parents":[2147483647,0,0,1,1,2,2],"right_children":[2,4,6,-1,-1,-1,-1],"split_conditions":[9.8405E1,7.9365005E1,9.965E1,-2.8223568E-3,4.5081082E-1,2.2986616E-1,-2.357548E-1],"split_indices":[3,7,3,0,0,0,0],"split_type":[0,0,0,0,0,0,0],"sum_hessian":[1.3003815E3,1.2798815E3,2.0499893E1,1.2779518E3,1.9297128E0,1.5937073E1,4.5628204E0],"tree_param":{"num_deleted":"0","num_feature":"9","num_nodes":"7","size_leaf_vector":"0"}},{"base_weights":[-3.935074E-4,-1.16285E0,2.0404812E-3,-1.3754759E0,-8.0770606E-1,1.6137621E-1,-1.7840771E-2],"categories":[],"categories_nodes":[],"categories_segments":[],"categories_sizes":[],"default_left":[true,true,true,false,false,false,false],"id":51,"left_children":[1,3,5,-1,-1,-1,-1],"loss_changes":[3.6789608E0,2.0515585E-1,4.110346E0,0E0,0E0,0E0,0E0],"parents":[2147483647,0,0,1,1,2,2],"right_children":[2,4,6,-1,-1,-1,-1],"split_conditions":[1.075E0,4.2155E1,3.025E0,-4.1264278E-1,-2.4231182E-1,4.8412863E-2,-5.3522317E-3],"split_indices":[0,7,1,0,0,0,0],"split_type":[0,0,0,0,0,0,0],"sum_hessian":[1.300259E3,2.7168355E0,1.2975422E3,1.6993992E0,1.0174361E0,1.4394151E2,1.1536007E3],"tree_param":{"num_deleted":"0","num_feature":"9","num_nodes":"7","size_leaf_vector":"0"}},{"base_weights":[-3.0212835E-4,1.5941056E0,-2.0395038E-3,-1.336489E0,1.2179845E-3],"categories":[],"categories_nodes":[],"categories_segments":[],"categories_sizes":[],"default_left":[true,false,true,false,false],"id":52,"left_children":[1,-1,3,-1,-1],"loss_changes":[3.5912683E0,0E0,5.629461E0,0E0,0E0],"parents":[2147483647,0,0,2,2],"right_children":[2,-1,4,-1,-1],"split_conditions":[1.075E0,4.782317E-1,1.265E0,-4.009467E-1,3.6539536E-4],"split_indices":[3,0,3,0,0],"split_type":[0,0,0,0,0],"sum_hessian":[1.296447E3,1.4111595E0,1.2950359E3,3.1535785E0,1.2918823E3],"tree_param":{"num_deleted":"0","num_feature":"9","num_nodes":"5","size_leaf_vector":"0"}},{"base_weights":[-2.7962663E-4,2.216163E-3,-1.0849004E0,1.7822172E-1,-1.3334578E-2,-1.0600876E0,-1.1284611E0],"categories":[],"categories_nodes":[],"categories_segments":[],"categories_sizes":[],"default_left":[true,true,true,false,false,false,false],"id":53,"left_children":[1,3,5,-1,-1,-1,-1],"loss_changes":[3.509033E0,3.5398176E0,3.2167435E-3,0E0,0E0,0E0,0E0],"parents":[2147483647,0,0,1,1,2,2],"right_children":[2,4,6,-1,-1,-1,-1],"split_conditions":[4.407E1,8.695E0,8.116E1,5.3466517E-2,-4.0003737E-3,-3.1802627E-1,-3.3853835E-1],"split_indices":[1,3,4,0,0,0,0],"split_type":[0,0,0,0,0,0,0],"sum_hessian":[1.2962882E3,1.2933123E3,2.976004E0,1.0499244E2,1.1883198E3,1.8960117E0,1.0799922E0],"tree_param":{"num_deleted":"0","num_feature":"9","num_nodes":"7","size_leaf_vector":"0"}},{"base_weights":[-3.1752867E-4,1.3293808E0,-2.3373147E-3,1.5820352E-2,-1.4734252E-1],"categories":[],"categories_nodes":[],"categories_segments":[],"categories_sizes":[],"default_left":[true,false,true,false,false],"id":54,"left_children":[1,-1,3,-1,-1],"loss_changes":[3.4801052E0,0E0,3.406578E0,0E0,0E0],"parents":[2147483647,0,0,2,2],"right_children":[2,-1,4,-1,-1],"split_conditions":[1.1424999E1,3.9881423E-1,1.698E1,4.746106E-3,-4.4202756E-2],"split_indices":[6,0,1,0,0],"split_type":[0,0,0,0,0],"sum_hessian":[1.2957878E3,1.9652916E0,1.2938226E3,1.1498389E3,1.4398375E2],"tree_param":{"num_deleted":"0","num_feature":"9","num_nodes":"5","size_leaf_vector":"0"}},{"base_weights":[-2.7034892E-4,8.0351406E-1,-3.4275642E-3,-3.9576516E-2,1.3282489E0,-1.78624E-1,1.23853795E-2],"categories":[],"categories_nodes":[],"categories_segments":[],"categories_sizes":[],"default_left":[true,true,true,false,false,false,false],"id":55,"left_children":[1,3,5,-1,-1,-1,-1],"loss_changes":[3.2793186E0,2.2367423E0,3.5659504E0,0E0,0E0,0E0,0E0],"parents":[2147483647,0,0,1,1,2,2],"right_children":[2,4,6,-1,-1,-1,-1],"split_conditions":[1.235E0,3.0215E1,1.3225E1,-1.1872956E-2,3.9847466E-1,-5.3587202E-2,3.715614E-3],"split_indices":[1,5,4,0,0,0,0],"split_type":[0,0,0,0,0,0,0],"sum_hessian":[1.2922301E3,5.05594E0,1.2871742E3,1.9395953E0,3.116345E0,1.0656027E2,1.1806139E3],"tree_param":{"num_deleted":"0","num_feature":"9","num_nodes":"7","size_leaf_vector":"0"}},{"base_weights":[-1.4193666E-4,8.463961E-1,-3.0709503E-3,1.675073E-1,2.1268919E0,-7.4625593E-1,8.2922017E-4],"categories":[],"categories_nodes":[],"categories_segments":[],"categories_sizes":[],"default_left":[true,true,true,false,false,false,false],"id":56,"left_children":[1,3,5,-1,-1,-1,-1],"loss_changes":[3.1961625E0,3.8637824E0,3.7234147E0,0E0,0E0,0E0,0E0],"parents":[2147483647,0,0,1,1,2,2],"right_children":[2,4,6,-1,-1,-1,-1],"split_conditions":[1.328E1,6.9825E1,1.7675E1,5.0252195E-2,6.380676E-1,-2.2387679E-1,2.4876607E-4],"split_indices":[7,5,7,0,0,0,0],"split_type":[0,0,0,0,0,0,0],"sum_hessian":[1.2890239E3,4.4446325E0,1.2845793E3,2.9046533E0,1.5399791E0,6.7061677E0,1.2778732E3],"tree_param":{"num_deleted":"0","num_feature":"9","num_nodes":"7","size_leaf_vector":"0"}},{"base_weights":[-2.12522E-4,9.142676E-1,-2.905962E-3,-2.0016102E-1,1.4285492E0,-7.6695806E-3,5.060301E-1],"categories":[],"categories_nodes":[],"categories_segments":[],"categories_sizes":[],"default_left":[true,true,true,false,false,false,false],"id":57,"left_children":[1,3,5,-1,-1,-1,-1],"loss_changes":[3.1746457E0,2.1693158E0,3.1155636E0,0E0,0E0,0E0,0E0],"parents":[2147483647,0,0,1,1,2,2],"right_children":[2,4,6,-1,-1,-1,-1],"split_conditions":[1.025E0,5.78E0,9.9274994E1,-6.004831E-2,4.2856476E-1,-2.3008743E-3,1.5180904E-1],"split_indices":[2,0,5,0,0,0,0],"split_type":[0,0,0,0,0,0,0],"sum_hessian":[1.2888835E3,3.7850316E0,1.2850986E3,1.1951617E0,2.5898697E0,1.2731816E3,1.1916923E1],"tree_param":{"num_deleted":"0","num_feature":"9","num_nodes":"7","size_leaf_vector":"0"}},{"base_weights":[-1.5128072E-4,1.9967742E-1,-1.0976111E-2,1.2693241E-1,1.820298E0,6.4935805E-3,-1.8307756E-1],"categories":[],"categories_nodes":[],"categories_segments":[],"categories_sizes":[],"default_left":[true,true,true,false,false,false,false],"id":58,"left_children":[1,3,5,-1,-1,-1,-1],"loss_changes":[2.7869315E0,7.805203E0,3.6745672E0,0E0,0E0,0E0,0E0],"parents":[2147483647,0,0,1,1,2,2],"right_children":[2,4,6,-1,-1,-1,-1],"split_conditions":[2.7945E1,9.5915E1,2.134E1,3.8079724E-2,5.460894E-1,1.9480742E-3,-5.492327E-2],"split_indices":[6,3,0,0,0,0,0],"split_type":[0,0,0,0,0,0,0],"sum_hessian":[1.28839E3,6.620636E1,1.2221836E3,6.336221E1,2.844148E0,1.1095548E3,1.12628815E2],"tree_param":{"num_deleted":"0","num_feature":"9","num_nodes":"7","size_leaf_vector":"0"}},{"base_weights":[-1.6720225E-4,-1.8396111E-2,1.2290877E-1,-1.5855523E-2,-2.0178006E0,8.500506E-1,4.709379E-2],"categories":[],"categories_nodes":[],"categories_segments":[],"categories_sizes":[],"default_left":[true,true,true,false,false,false,false],"id":59,"left_children":[1,3,5,-1,-1,-1,-1],"loss_changes":[2.8890827E0,5.6974034E0,9.158064E0,0E0,0E0,0E0,0E0],"parents":[2147483647,0,0,1,1,2,2],"right_children":[2,4,6,-1,-1,-1,-1],"split_conditions":[8.8915E1,8.883E1,4.745E0,-4.756657E-3,-6.053402E-1,2.550152E-1,1.4128137E-2],"split_indices":[4,4,1,0,0,0,0],"split_type":[0,0,0,0,0,0,0],"sum_hessian":[1.2877336E3,1.1216107E3,1.6612291E2,1.1201873E3,1.4233907E0,1.5685283E1,1.5043762E2],"tree_param":{"num_deleted":"0","num_feature":"9","num_nodes":"7","size_leaf_vector":"0"}},{"base_weights":[1.9176629E-4,-1.8773572E-1,1.2410133E-2,-7.021476E-1,-3.5804473E-2,8.753043E-1,6.047449E-3],"categories":[],"categories_nodes":[],"categories_segments":[],"categories_sizes":[],"default_left":[true,true,true,false,false,false,false],"id":60,"left_children":[1,3,5,-1,-1,-1,-1],"loss_changes":[2.9478843E0,6.1253595E0,6.618332E0,0E0,0E0,0E0,0E0],"parents":[2147483647,0,0,1,1,2,2],"right_children":[2,4,6,-1,-1,-1,-1],"split_conditions":[6.99E0,2.2325E1,7.5950003E0,-2.1064429E-1,-1.0741342E-2,2.625913E-1,1.8142348E-3],"split_indices":[5,3,5,0,0,0,0],"split_type":[0,0,0,0,0,0,0],"sum_hessian":[1.2838282E3,7.837427E1,1.205454E3,1.7869925E1,6.0504345E1,8.823541E0,1.1966305E3],"tree_param":{"num_deleted":"0","num_feature":"9","num_nodes":"7","size_leaf_vector":"0"}},{"base_weights":[2.7844473E-5,-4.8832785E-2,4.221703E-2,-2.3326492E-2,-9.206798E-1,1.266365E0,2.7769793E-2],"categories":[],"categories_nodes":[],"categories_segments":[],"categories_sizes":[],"default_left":[true,true,true,false,false,false,false],"id":61,"left_children":[1,3,5,-1,-1,-1,-1],"loss_changes":[2.646227E0,1.3227465E1,1.2183318E1,0E0,0E0,0E0,0E0],"parents":[2147483647,0,0,1,1,2,2],"right_children":[2,4,6,-1,-1,-1,-1],"split_conditions":[7.165E0,2.545E1,7.2650003E0,-6.997948E-3,-2.7620396E-1,3.7990955E-1,8.330938E-3],"split_indices":[0,1,0,0,0,0,0],"split_type":[0,0,0,0,0,0,0],"sum_hessian":[1.2837098E3,5.9482465E2,6.888852E2,5.779174E2,1.6907244E1,8.035304E0,6.808499E2],"tree_param":{"num_deleted":"0","num_feature":"9","num_nodes":"7","size_leaf_vector":"0"}},{"base_weights":[-3.9686382E-4,1.2478435E-1,-1.7047506E-2,1.00339495E-1,1.9018977E0,1.4963483E0,-1.9072613E-2],"categories":[],"categories_nodes":[],"categories_segments":[],"categories_sizes":[],"default_left":[true,true,true,false,false,false,false],"id":62,"left_children":[1,3,5,-1,-1,-1,-1],"loss_changes":[2.6701417E0,6.5331707E0,3.4652133E0,0E0,0E0,0E0,0E0],"parents":[2147483647,0,0,1,1,2,2],"right_children":[2,4,6,-1,-1,-1,-1],"split_conditions":[3.528E1,3.5165E1,1.1424999E1,3.0101849E-2,5.7056934E-1,4.4890448E-1,-5.721784E-3],"split_indices":[8,8,6,0,0,0,0],"split_type":[0,0,0,0,0,0,0],"sum_hessian":[1.2810443E3,1.5039084E2,1.1306536E3,1.4835022E2,2.0406127E0,1.5109295E0,1.1291426E3],"tree_param":{"num_deleted":"0","num_feature":"9","num_nodes":"7","size_leaf_vector":"0"}},{"base_weights":[-3.1279158E-4,1.4622943E-1,-1.379379E-2,7.8889996E-2,1.3776345E0,-6.8486226E-1,-7.4703195E-3],"categories":[],"categories_nodes":[],"categories_segments":[],"categories_sizes":[],"default_left":[true,true,true,false,false,false,false],"id":63,"left_children":[1,3,5,-1,-1,-1,-1],"loss_changes":[2.529657E0,8.945122E0,4.9759827E0,0E0,0E0,0E0,0E0],"parents":[2147483647,0,0,1,1,2,2],"right_children":[2,4,6,-1,-1,-1,-1],"split_conditions":[2.8634998E1,2.8345001E1,2.9404999E1,2.3667E-2,4.1329038E-1,-2.0545869E-1,-2.241096E-3],"split_indices":[7,7,7,0,0,0,0],"split_type":[0,0,0,0,0,0,0],"sum_hessian":[1.2804918E3,1.07873764E2,1.172618E3,1.0228055E2,5.593216E0,1.0946418E1,1.1616716E3],"tree_param":{"num_deleted":"0","num_feature":"9","num_nodes":"7","size_leaf_vector":"0"}},{"base_weights":[-3.0854493E-4,-7.298833E-2,2.7662823E-2,-2.7435166E-1,1.6609376E-2,8.5199517E-1,2.05952E-2],"categories":[],"categories_nodes":[],"categories_segments":[],"categories_sizes":[],"default_left":[true,true,true,false,false,false,false],"id":64,"left_children":[1,3,5,-1,-1,-1,-1],"loss_changes":[2.6034074E0,6.4207683E0,5.387477E0,0E0,0E0,0E0,0E0],"parents":[2147483647,0,0,1,1,2,2],"right_children":[2,4,6,-1,-1,-1,-1],"split_conditions":[2.8415E1,3.832E1,1.8985E1,-8.23055E-2,4.9828133E-3,2.5559857E-1,6.17856E-3],"split_indices":[5,4,8,0,0,0,0],"split_type":[0,0,0,0,0,0,0],"sum_hessian":[1.2806038E3,3.5588504E2,9.2471875E2,1.0959022E2,2.4629482E2,7.8609138E0,9.1685785E2],"tree_param":{"num_deleted":"0","num_feature":"9","num_nodes":"7","size_leaf_vector":"0"}},{"base_weights":[-3.6461616E-4,-8.391736E-1,1.9505838E-3,-2.2029471E-1,-1.1899267E0,1.294198E-1,-1.366571E-2],"categories":[],"categories_nodes":[],"categories_segments":[],"categories_sizes":[],"default_left":[true,true,true,false,false,false,false],"id":65,"left_children":[1,3,5,-1,-1,-1,-1],"loss_changes":[2.4819016E0,7.6360464E-1,2.5369925E0,0E0,0E0,0E0,0E0],"parents":[2147483647,0,0,1,1,2,2],"right_children":[2,4,6,-1,-1,-1,-1],"split_conditions":[1.105E0,2.075E0,3.025E0,-6.6088416E-2,-3.5697803E-1,3.8825944E-2,-4.099713E-3],"split_indices":[0,1,1,0,0,0,0],"split_type":[0,0,0,0,0,0,0],"sum_hessian":[1.2780062E3,3.5177205E0,1.2744885E3,1.2724946E0,2.2452261E0,1.3909714E2,1.1353914E3],"tree_param":{"num_deleted":"0","num_feature":"9","num_nodes":"7","size_leaf_vector":"0"}},{"base_weights":[-2.9999285E-4,8.1216255E-3,-2.2568974E-1,-5.6317735E-1,1.3823754E-2,3.4445312E0,-3.279126E-1],"categories":[],"categories_nodes":[],"categories_segments":[],"categories_sizes":[],"default_left":[true,true,true,false,false,false,false],"id":66,"left_children":[1,3,5,-1,-1,-1,-1],"loss_changes":[2.4201262E0,4.003845E0,1.7229727E1,0E0,0E0,0E0,0E0],"parents":[2147483647,0,0,1,1,2,2],"right_children":[2,4,6,-1,-1,-1,-1],"split_conditions":[7.395E1,1.86E0,2.52E0,-1.6895321E-1,4.1471263E-3,1.0333594E0,-9.8373786E-2],"split_indices":[8,3,3,0,0,0,0],"split_type":[0,0,0,0,0,0,0],"sum_hessian":[1.2749945E3,1.2290706E3,4.5923843E1,1.214611E1,1.2169246E3,1.2444099E0,4.4679436E1],"tree_param":{"num_deleted":"0","num_feature":"9","num_nodes":"7","size_leaf_vector":"0"}}]},"name":"gbtree"},"learner_model_param":{"base_score":"5E-1","num_class":"0","num_feature":"9"},"objective":{"name":"binary:logistic","reg_loss_param":{"scale_pos_weight":"1"}}},"version":[1,3,3]}